<?xml version="1.0"?>
<opencv_storage>
<cascade>
  <stageType>BOOST</stageType>
  <featureType>LBP</featureType>
  <height>60</height>
  <width>30</width>
  <stageParams>
    <boostType>GAB</boostType>
    <minHitRate>9.9500000476837158e-01</minHitRate>
    <maxFalseAlarm>5.0000000000000000e-01</maxFalseAlarm>
    <weightTrimRate>9.4999999999999996e-01</weightTrimRate>
    <maxDepth>1</maxDepth>
    <maxWeakCount>100</maxWeakCount></stageParams>
  <featureParams>
    <maxCatCount>256</maxCatCount>
    <featSize>1</featSize></featureParams>
  <stageNum>30</stageNum>
  <stages>
    <!-- stage 0 -->
    <_>
      <maxWeakCount>2</maxWeakCount>
      <stageThreshold>-1.5901733934879303e-01</stageThreshold>
      <weakClassifiers>
        <_>
          <internalNodes>
            0 -1 7 -184450145 -654229478 16777490 -788000766 8256
            100663336 -2130704383 797114371</internalNodes>
          <leafValues>
            -9.3893128633499146e-01 6.6906476020812988e-01</leafValues></_>
        <_>
          <internalNodes>
            0 -1 44 -733507373 536956993 276824082 -535725822
            -1199045947 268963968 -1065082878 -964001230</internalNodes>
          <leafValues>
            -8.2808208465576172e-01 7.8433185815811157e-01</leafValues></_></weakClassifiers></_>
    <!-- stage 1 -->
    <_>
      <maxWeakCount>2</maxWeakCount>
      <stageThreshold>-2.1881397068500519e-01</stageThreshold>
      <weakClassifiers>
        <_>
          <internalNodes>
            0 -1 4 1095041093 1526865938 70035 822685955 1090781187
            419430401 -1073741803 1661430275</internalNodes>
          <leafValues>
            -9.2481201887130737e-01 6.7883211374282837e-01</leafValues></_>
        <_>
          <internalNodes>
            0 -1 18 200977 420741121 1090584601 -2097151734 66 948437120
            1082132654 2139832975</internalNodes>
          <leafValues>
            -8.9764606952667236e-01 7.4941194057464600e-01</leafValues></_></weakClassifiers></_>
    <!-- stage 2 -->
    <_>
      <maxWeakCount>2</maxWeakCount>
      <stageThreshold>4.3224751949310303e-02</stageThreshold>
      <weakClassifiers>
        <_>
          <internalNodes>
            0 -1 34 12285 419430417 -1879047919 -1190125056 136
            -1399844856 -56612709 -1451220968</internalNodes>
          <leafValues>
            -7.1428573131561279e-01 8.8235294818878174e-01</leafValues></_>
        <_>
          <internalNodes>
            0 -1 5 -796716485 1392705574 1 1360068691 1610680359 8585217
            1426522182 -250877085</internalNodes>
          <leafValues>
            -8.3912819623947144e-01 7.9654049873352051e-01</leafValues></_></weakClassifiers></_>
    <!-- stage 3 -->
    <_>
      <maxWeakCount>2</maxWeakCount>
      <stageThreshold>5.8169391006231308e-02</stageThreshold>
      <weakClassifiers>
        <_>
          <internalNodes>
            0 -1 54 -151003465 586071919 -1342194050 1081622526
            1074825245 65537 -536838141 -687996961</internalNodes>
          <leafValues>
            -7.7914112806320190e-01 9.0654206275939941e-01</leafValues></_>
        <_>
          <internalNodes>
            0 -1 43 -787226181 -2147286782 262144 1 34947 536870912
            -2147368534 1103331499</internalNodes>
          <leafValues>
            -8.4837263822555542e-01 8.7290942668914795e-01</leafValues></_></weakClassifiers></_>
    <!-- stage 4 -->
    <_>
      <maxWeakCount>3</maxWeakCount>
      <stageThreshold>-8.4237593412399292e-01</stageThreshold>
      <weakClassifiers>
        <_>
          <internalNodes>
            0 -1 56 1493815682 -2147413567 4225 1073856514 -1610612736
            -2013265920 16793600 -800341885</internalNodes>
          <leafValues>
            -8.1428569555282593e-01 6.4615386724472046e-01</leafValues></_>
        <_>
          <internalNodes>
            0 -1 12 -780029491 -791674879 16814107 -1073725376
            -2004827918 32768 269352966 -192683629</internalNodes>
          <leafValues>
            -7.2465413808822632e-01 8.1432861089706421e-01</leafValues></_>
        <_>
          <internalNodes>
            0 -1 11 1342379211 -788529022 1082146816 268963840 4
            268435456 -2147450862 -804667249</internalNodes>
          <leafValues>
            -8.4241884946823120e-01 7.3084092140197754e-01</leafValues></_></weakClassifiers></_>
    <!-- stage 5 -->
    <_>
      <maxWeakCount>3</maxWeakCount>
      <stageThreshold>-8.5976278781890869e-01</stageThreshold>
      <weakClassifiers>
        <_>
          <internalNodes>
            0 -1 42 1150735203 275 1343225895 67109378 -1073676157
            -2147481472 621510827 -2146839917</internalNodes>
          <leafValues>
            -8.4172660112380981e-01 6.6412216424942017e-01</leafValues></_>
        <_>
          <internalNodes>
            0 -1 59 1620304291 99585 68175953 33636418 -1040168695
            270532608 168296586 -762345317</internalNodes>
          <leafValues>
            -8.2188087701797485e-01 7.3864960670471191e-01</leafValues></_>
        <_>
          <internalNodes>
            0 -1 36 1090560308 -1878980539 33 -1853882086 -1979678467
            -796721022 65673 -854065144</internalNodes>
          <leafValues>
            -8.0918031930923462e-01 8.0384474992752075e-01</leafValues></_></weakClassifiers></_>
    <!-- stage 6 -->
    <_>
      <maxWeakCount>2</maxWeakCount>
      <stageThreshold>-1.2236340343952179e-01</stageThreshold>
      <weakClassifiers>
        <_>
          <internalNodes>
            0 -1 48 -253550509 1108230146 1114192 -2004828159
            -2147336061 -2004873216 -2143256576 -188566997</internalNodes>
          <leafValues>
            -8.4397161006927490e-01 6.8992245197296143e-01</leafValues></_>
        <_>
          <internalNodes>
            0 -1 41 -1327984233 -998162042 -2147270591 -1006600169
            524419 -2013200384 402718849 571669047</internalNodes>
          <leafValues>
            -8.1228590011596680e-01 7.8453814983367920e-01</leafValues></_></weakClassifiers></_>
    <!-- stage 7 -->
    <_>
      <maxWeakCount>2</maxWeakCount>
      <stageThreshold>-1.9939485192298889e-01</stageThreshold>
      <weakClassifiers>
        <_>
          <internalNodes>
            0 -1 0 -222068489 -1056816127 335577235 -1736376063
            -784201212 129 -1610604406 1686245655</internalNodes>
          <leafValues>
            -8.4285712242126465e-01 6.7692309617996216e-01</leafValues></_>
        <_>
          <internalNodes>
            0 -1 23 1157841551 301993987 536887296 -931114303
            -1878359033 268435514 -792444928 -254411712</internalNodes>
          <leafValues>
            -8.7631791830062866e-01 7.2420299053192139e-01</leafValues></_></weakClassifiers></_>
    <!-- stage 8 -->
    <_>
      <maxWeakCount>2</maxWeakCount>
      <stageThreshold>-2.3119919002056122e-01</stageThreshold>
      <weakClassifiers>
        <_>
          <internalNodes>
            0 -1 20 -2046355199 -909557581 18449 77595065 1509982438
            -1476231000 -939229038 806510658</internalNodes>
          <leafValues>
            -8.9230769872665405e-01 6.1428570747375488e-01</leafValues></_>
        <_>
          <internalNodes>
            0 -1 38 -1727817953 855998464 268435489 268501059
            -2139094621 8470528 -2147418008 705128587</internalNodes>
          <leafValues>
            -8.4548491239547729e-01 7.5564068555831909e-01</leafValues></_></weakClassifiers></_>
    <!-- stage 9 -->
    <_>
      <maxWeakCount>2</maxWeakCount>
      <stageThreshold>-3.0350017547607422e-01</stageThreshold>
      <weakClassifiers>
        <_>
          <internalNodes>
            0 -1 46 -976141111 537002499 16777229 -2070511277 4214955
            -926875520 -1068449399 688399</internalNodes>
          <leafValues>
            -8.4615385532379150e-01 5.7142859697341919e-01</leafValues></_>
        <_>
          <internalNodes>
            0 -1 25 3214847 -1826455416 268435460 -1055913896 8398848
            32784 738203996 1721352203</internalNodes>
          <leafValues>
            -8.7492877244949341e-01 5.9983277320861816e-01</leafValues></_></weakClassifiers></_>
    <!-- stage 10 -->
    <_>
      <maxWeakCount>2</maxWeakCount>
      <stageThreshold>-9.4549208879470825e-02</stageThreshold>
      <weakClassifiers>
        <_>
          <internalNodes>
            0 -1 50 1351214667 -2147418111 65536 180224 -2147335934
            -1608318975 34374275 -528235805</internalNodes>
          <leafValues>
            -8.1818181276321411e-01 6.8503934144973755e-01</leafValues></_>
        <_>
          <internalNodes>
            0 -1 3 -692920245 4325506 -2147474944 -2147360751
            -2147213309 -1056798719 1661553747 -2034042816</internalNodes>
          <leafValues>
            -7.7958858013153076e-01 8.1202906370162964e-01</leafValues></_></weakClassifiers></_>
    <!-- stage 11 -->
    <_>
      <maxWeakCount>2</maxWeakCount>
      <stageThreshold>-2.6445326209068298e-01</stageThreshold>
      <weakClassifiers>
        <_>
          <internalNodes>
            0 -1 61 1375916111 4259842 0 -2147418111 -1073684478
            16908288 32964 -485504253</internalNodes>
          <leafValues>
            -7.8102189302444458e-01 5.7894736528396606e-01</leafValues></_>
        <_>
          <internalNodes>
            0 -1 37 1359808371 1930694656 -2147481590 -1774157799
            4509825 -939360256 -1342068021 4204034</internalNodes>
          <leafValues>
            -8.4340065717697144e-01 6.1572843790054321e-01</leafValues></_></weakClassifiers></_>
    <!-- stage 12 -->
    <_>
      <maxWeakCount>2</maxWeakCount>
      <stageThreshold>-2.4242085218429565e-01</stageThreshold>
      <weakClassifiers>
        <_>
          <internalNodes>
            0 -1 30 -1874850608 -690650839 134234243 -1744828142
            -939478961 -1996488696 328339 60817696</internalNodes>
          <leafValues>
            -8.9830505847930908e-01 5.0000000000000000e-01</leafValues></_>
        <_>
          <internalNodes>
            0 -1 27 -2095902121 -1851785215 -1065353194 -1874328543 651
            134283266 -2147481413 -628621178</internalNodes>
          <leafValues>
            -7.4242085218429565e-01 7.5241118669509888e-01</leafValues></_></weakClassifiers></_>
    <!-- stage 13 -->
    <_>
      <maxWeakCount>2</maxWeakCount>
      <stageThreshold>-1.2545651197433472e-01</stageThreshold>
      <weakClassifiers>
        <_>
          <internalNodes>
            0 -1 14 1075050651 -1610530301 675315736 1090846769
            -2147319806 100663298 32768 -502872953</internalNodes>
          <leafValues>
            -7.7777779102325439e-01 6.5079367160797119e-01</leafValues></_>
        <_>
          <internalNodes>
            0 -1 10 -1878849862 -2145185791 16 -133509103 1342373945
            -1878917119 -2096545024 -230442493</internalNodes>
          <leafValues>
            -7.7625018358230591e-01 6.9566982984542847e-01</leafValues></_></weakClassifiers></_>
    <!-- stage 14 -->
    <_>
      <maxWeakCount>2</maxWeakCount>
      <stageThreshold>-1.1526515334844589e-01</stageThreshold>
      <weakClassifiers>
        <_>
          <internalNodes>
            0 -1 2 -511459045 -1861779439 50545033 -1056833280 40067091
            536937088 1073774848 1105379600</internalNodes>
          <leafValues>
            -7.9020977020263672e-01 6.5354329347610474e-01</leafValues></_>
        <_>
          <internalNodes>
            0 -1 62 -513299583 537935908 -2146856688 1107296290
            -2147254270 268435457 537477505 -1060929533</internalNodes>
          <leafValues>
            -7.6880848407745361e-01 7.1223360300064087e-01</leafValues></_></weakClassifiers></_>
    <!-- stage 15 -->
    <_>
      <maxWeakCount>2</maxWeakCount>
      <stageThreshold>-1.8117596209049225e-01</stageThreshold>
      <weakClassifiers>
        <_>
          <internalNodes>
            0 -1 1 -497884924 -1879047679 -2147450879 1124089867 98688 0
            536896002 -1560035071</internalNodes>
          <leafValues>
            -7.8260868787765503e-01 5.9090906381607056e-01</leafValues></_>
        <_>
          <internalNodes>
            0 -1 22 -1071990321 1358987657 16777472 -402440192 133282
            1342177280 32768 1124289251</internalNodes>
          <leafValues>
            -7.7208507061004639e-01 6.8982547521591187e-01</leafValues></_></weakClassifiers></_>
    <!-- stage 16 -->
    <_>
      <maxWeakCount>2</maxWeakCount>
      <stageThreshold>-2.9938781261444092e-01</stageThreshold>
      <weakClassifiers>
        <_>
          <internalNodes>
            0 -1 35 -2134897408 -1744760815 -2130375664 -1580138487
            1073942664 268534528 268468271 320016642</internalNodes>
          <leafValues>
            -9.1379308700561523e-01 4.9350649118423462e-01</leafValues></_>
        <_>
          <internalNodes>
            0 -1 57 1900081290 1073840129 512 -1039958007 16523
            537133186 -2147168253 -507264317</internalNodes>
          <leafValues>
            -7.9289430379867554e-01 6.8765985965728760e-01</leafValues></_></weakClassifiers></_>
    <!-- stage 17 -->
    <_>
      <maxWeakCount>2</maxWeakCount>
      <stageThreshold>-4.7833696007728577e-02</stageThreshold>
      <weakClassifiers>
        <_>
          <internalNodes>
            0 -1 6 -2087320809 1145114689 -1979167229 -1983708856
            1074085888 612401153 839919637 -168638315</internalNodes>
          <leafValues>
            -8.6206895112991333e-01 7.5999999046325684e-01</leafValues></_>
        <_>
          <internalNodes>
            0 -1 53 1613710667 538968326 -469662719 610307 -518914048
            287343115 -1844951541 -472542541</internalNodes>
          <leafValues>
            -8.0783367156982422e-01 8.4692889451980591e-01</leafValues></_></weakClassifiers></_>
    <!-- stage 18 -->
    <_>
      <maxWeakCount>3</maxWeakCount>
      <stageThreshold>-6.5461647510528564e-01</stageThreshold>
      <weakClassifiers>
        <_>
          <internalNodes>
            0 -1 31 -1350417604 1073676271 -262 -65537 -281182209
            -135397385 1073676286 -1417117892</internalNodes>
          <leafValues>
            -6.7857140302658081e-01 8.2352942228317261e-01</leafValues></_>
        <_>
          <internalNodes>
            0 -1 45 -734821437 286261316 1342455809 -251657600
            -1040187189 16924672 1660945408 323864961</internalNodes>
          <leafValues>
            -7.5830388069152832e-01 7.7210605144500732e-01</leafValues></_>
        <_>
          <internalNodes>
            0 -1 26 -2145681170 65536 1073774594 1879113857 8949830
            402653312 -536244096 -528242550</internalNodes>
          <leafValues>
            -7.1984201669692993e-01 8.3529698848724365e-01</leafValues></_></weakClassifiers></_>
    <!-- stage 19 -->
    <_>
      <maxWeakCount>2</maxWeakCount>
      <stageThreshold>-3.0571344494819641e-01</stageThreshold>
      <weakClassifiers>
        <_>
          <internalNodes>
            0 -1 7 408412445 411041845 -2147483647 71516166 1082524753
            2048 1342343425 2072453743</internalNodes>
          <leafValues>
            -9.1525423526763916e-01 5.1315790414810181e-01</leafValues></_>
        <_>
          <internalNodes>
            0 -1 29 100735092 294719768 1346371841 16781617 8395427
            -1056800723 -1996488641 -1702756328</internalNodes>
          <leafValues>
            -8.1887137889862061e-01 7.3665106296539307e-01</leafValues></_></weakClassifiers></_>
    <!-- stage 20 -->
    <_>
      <maxWeakCount>3</maxWeakCount>
      <stageThreshold>-7.7193808555603027e-01</stageThreshold>
      <weakClassifiers>
        <_>
          <internalNodes>
            0 -1 58 1879048015 -1358970897 -16386 -285958018 -201330690
            -3 67272711 -688915901</internalNodes>
          <leafValues>
            -7.3333334922790527e-01 8.6666667461395264e-01</leafValues></_>
        <_>
          <internalNodes>
            0 -1 51 -1064631937 1612972058 1174470725 -2147418112
            1342996515 1879326721 117445636 -1031365395</internalNodes>
          <leafValues>
            -7.5757455825805664e-01 8.4832429885864258e-01</leafValues></_>
        <_>
          <internalNodes>
            0 -1 9 -1606183649 -1069514454 2 -1047330751 537067521
            536920072 -2013200125 2047044135</internalNodes>
          <leafValues>
            -8.8692903518676758e-01 7.7449715137481689e-01</leafValues></_></weakClassifiers></_>
    <!-- stage 21 -->
    <_>
      <maxWeakCount>3</maxWeakCount>
      <stageThreshold>-7.3283630609512329e-01</stageThreshold>
      <weakClassifiers>
        <_>
          <internalNodes>
            0 -1 60 -50348177 -285245953 -16793857 -364615674
            -1744838667 -1609530992 1075437571 -243466432</internalNodes>
          <leafValues>
            -7.1951222419738770e-01 8.3018869161605835e-01</leafValues></_>
        <_>
          <internalNodes>
            0 -1 16 1628689399 -1005977533 -1069465198 1545149058
            570621957 1610612864 1115849488 -259954494</internalNodes>
          <leafValues>
            -7.5131213665008545e-01 8.2848018407821655e-01</leafValues></_>
        <_>
          <internalNodes>
            0 -1 55 -1656453815 675283203 1073842187 -1073659904
            -2113821759 1098907712 -2145778806 -1014005366</internalNodes>
          <leafValues>
            -8.1171280145645142e-01 8.1518685817718506e-01</leafValues></_></weakClassifiers></_>
    <!-- stage 22 -->
    <_>
      <maxWeakCount>3</maxWeakCount>
      <stageThreshold>-6.0590720176696777e-01</stageThreshold>
      <weakClassifiers>
        <_>
          <internalNodes>
            0 -1 49 1333227445 -152043921 -1073872962 2080751486 -131
            1098907646 -536851837 -436406465</internalNodes>
          <leafValues>
            -5.8888888359069824e-01 8.4444445371627808e-01</leafValues></_>
        <_>
          <internalNodes>
            0 -1 63 -489725813 1073741824 33554440 268435520 1610647577
            -1476395008 1082247170 -897138046</internalNodes>
          <leafValues>
            -7.0484346151351929e-01 7.4665480852127075e-01</leafValues></_>
        <_>
          <internalNodes>
            0 -1 47 2032127057 89358352 16928784 42991616 -1052767992
            -1810890743 -2013224317 -1966390879</internalNodes>
          <leafValues>
            -7.4550819396972656e-01 7.5244122743606567e-01</leafValues></_></weakClassifiers></_>
    <!-- stage 23 -->
    <_>
      <maxWeakCount>2</maxWeakCount>
      <stageThreshold>-7.2914265096187592e-02</stageThreshold>
      <weakClassifiers>
        <_>
          <internalNodes>
            0 -1 40 200622005 -1064961 -1 -294913 -1073774593 2138570751
            -1 -1074053327</internalNodes>
          <leafValues>
            -6.1849713325500488e-01 7.9381442070007324e-01</leafValues></_>
        <_>
          <internalNodes>
            0 -1 32 458229648 1426620417 268435529 -1862197223
            1107436744 -1476231030 297035 2005404032</internalNodes>
          <leafValues>
            -8.6672872304916382e-01 6.3071066141128540e-01</leafValues></_></weakClassifiers></_>
    <!-- stage 24 -->
    <_>
      <maxWeakCount>3</maxWeakCount>
      <stageThreshold>-7.5609219074249268e-01</stageThreshold>
      <weakClassifiers>
        <_>
          <internalNodes>
            0 -1 52 -269499465 786677759 -4194306 -1392574465 -32995
            -176291841 2147481599 -704643082</internalNodes>
          <leafValues>
            -6.5680474042892456e-01 8.0198019742965698e-01</leafValues></_>
        <_>
          <internalNodes>
            0 -1 17 -1006528041 -184549310 1342701633 1695090692
            17563739 1208762368 -1602207093 -394255734</internalNodes>
          <leafValues>
            -6.7009395360946655e-01 8.3252149820327759e-01</leafValues></_>
        <_>
          <internalNodes>
            0 -1 8 295338570 -804699838 268451905 -1072685056 1074531105
            75612182 -2012593008 581595782</internalNodes>
          <leafValues>
            -8.8797837495803833e-01 6.7102062702178955e-01</leafValues></_></weakClassifiers></_>
    <!-- stage 25 -->
    <_>
      <maxWeakCount>2</maxWeakCount>
      <stageThreshold>-1.6884016990661621e-01</stageThreshold>
      <weakClassifiers>
        <_>
          <internalNodes>
            0 -1 15 -476016405 -1853849470 8404992 -1946124285
            1124253713 268959872 -650084352 -477921047</internalNodes>
          <leafValues>
            -7.9020977020263672e-01 6.5354329347610474e-01</leafValues></_>
        <_>
          <internalNodes>
            0 -1 13 1074670667 327270544 1073807368 538279943 25756218
            1652572163 -921968064 1913686691</internalNodes>
          <leafValues>
            -8.2238346338272095e-01 6.8252223730087280e-01</leafValues></_></weakClassifiers></_>
    <!-- stage 26 -->
    <_>
      <maxWeakCount>2</maxWeakCount>
      <stageThreshold>-1.4914225041866302e-01</stageThreshold>
      <weakClassifiers>
        <_>
          <internalNodes>
            0 -1 28 -1853619786 -1877180080 268538205 -2145386496
            1073742051 -2000633784 -1064820724 -343205880</internalNodes>
          <leafValues>
            -7.5999999046325684e-01 6.9999998807907104e-01</leafValues></_>
        <_>
          <internalNodes>
            0 -1 64 92750342 -1071644405 0 1208098816 -2097118966
            184549379 -2105532408 -754071294</internalNodes>
          <leafValues>
            -8.4914225339889526e-01 6.2870377302169800e-01</leafValues></_></weakClassifiers></_>
    <!-- stage 27 -->
    <_>
      <maxWeakCount>2</maxWeakCount>
      <stageThreshold>-2.3515740036964417e-01</stageThreshold>
      <weakClassifiers>
        <_>
          <internalNodes>
            0 -1 21 1635972130 -2146434559 67207169 1073807369 4202753
            402915336 537218 -2066231161</internalNodes>
          <leafValues>
            -7.1428573131561279e-01 6.0975611209869385e-01</leafValues></_>
        <_>
          <internalNodes>
            0 -1 33 722239521 537100289 49683 -737312766 17443 940048512
            1082490882 -2145746877</internalNodes>
          <leafValues>
            -8.4491348266601563e-01 6.0884797573089600e-01</leafValues></_></weakClassifiers></_>
    <!-- stage 28 -->
    <_>
      <maxWeakCount>2</maxWeakCount>
      <stageThreshold>-1.5330971777439117e-01</stageThreshold>
      <weakClassifiers>
        <_>
          <internalNodes>
            0 -1 24 -1105051843 2146893823 -9 -1024 2113828861
            -517734401 67535000 -1108068620</internalNodes>
          <leafValues>
            -6.9325155019760132e-01 7.7570092678070068e-01</leafValues></_>
        <_>
          <internalNodes>
            0 -1 5 1166344983 67145729 66633 -977202942 805466117
            -1073643392 537071635 1469358174</internalNodes>
          <leafValues>
            -9.2901062965393066e-01 6.3960266113281250e-01</leafValues></_></weakClassifiers></_>
    <!-- stage 29 -->
    <_>
      <maxWeakCount>2</maxWeakCount>
      <stageThreshold>-2.8298398852348328e-01</stageThreshold>
      <weakClassifiers>
        <_>
          <internalNodes>
            0 -1 19 -2121002705 -217546367 536870912 1493304320
            134219881 2046951560 -1270873976 1493706917</internalNodes>
          <leafValues>
            -8.9565217494964600e-01 4.7096773982048035e-01</leafValues></_>
        <_>
          <internalNodes>
            0 -1 39 -2118090713 -805089219 1076166662 1015304194
            -2147349880 202375178 -2130550784 -2129452894</internalNodes>
          <leafValues>
            -7.5395172834396362e-01 7.0967018604278564e-01</leafValues></_></weakClassifiers></_></stages>
  <features>
    <_>
      <rect>
        0 0 10 14</rect></_>
    <_>
      <rect>
        0 2 2 18</rect></_>
    <_>
      <rect>
        0 3 3 17</rect></_>
    <_>
      <rect>
        0 5 4 15</rect></_>
    <_>
      <rect>
        0 5 8 8</rect></_>
    <_>
      <rect>
        0 8 3 5</rect></_>
    <_>
      <rect>
        0 10 3 5</rect></_>
    <_>
      <rect>
        0 10 5 12</rect></_>
    <_>
      <rect>
        0 12 3 7</rect></_>
    <_>
      <rect>
        0 13 6 14</rect></_>
    <_>
      <rect>
        0 16 2 10</rect></_>
    <_>
      <rect>
        0 16 3 8</rect></_>
    <_>
      <rect>
        0 32 3 3</rect></_>
    <_>
      <rect>
        0 34 2 5</rect></_>
    <_>
      <rect>
        0 34 3 5</rect></_>
    <_>
      <rect>
        0 40 2 4</rect></_>
    <_>
      <rect>
        0 41 2 4</rect></_>
    <_>
      <rect>
        0 45 9 5</rect></_>
    <_>
      <rect>
        0 48 7 4</rect></_>
    <_>
      <rect>
        0 48 8 4</rect></_>
    <_>
      <rect>
        1 0 8 7</rect></_>
    <_>
      <rect>
        1 11 1 11</rect></_>
    <_>
      <rect>
        1 27 2 10</rect></_>
    <_>
      <rect>
        1 41 2 3</rect></_>
    <_>
      <rect>
        2 0 5 2</rect></_>
    <_>
      <rect>
        2 22 9 11</rect></_>
    <_>
      <rect>
        3 16 1 6</rect></_>
    <_>
      <rect>
        3 48 7 4</rect></_>
    <_>
      <rect>
        4 51 7 3</rect></_>
    <_>
      <rect>
        4 54 4 2</rect></_>
    <_>
      <rect>
        5 1 5 3</rect></_>
    <_>
      <rect>
        6 2 4 1</rect></_>
    <_>
      <rect>
        6 48 6 4</rect></_>
    <_>
      <rect>
        8 17 2 4</rect></_>
    <_>
      <rect>
        10 1 3 1</rect></_>
    <_>
      <rect>
        10 8 3 3</rect></_>
    <_>
      <rect>
        11 1 2 1</rect></_>
    <_>
      <rect>
        12 0 4 10</rect></_>
    <_>
      <rect>
        12 33 6 9</rect></_>
    <_>
      <rect>
        13 32 3 6</rect></_>
    <_>
      <rect>
        15 57 2 1</rect></_>
    <_>
      <rect>
        18 0 4 5</rect></_>
    <_>
      <rect>
        18 5 4 8</rect></_>
    <_>
      <rect>
        18 17 4 10</rect></_>
    <_>
      <rect>
        20 24 3 3</rect></_>
    <_>
      <rect>
        20 42 3 6</rect></_>
    <_>
      <rect>
        21 2 3 9</rect></_>
    <_>
      <rect>
        21 4 3 4</rect></_>
    <_>
      <rect>
        21 23 3 8</rect></_>
    <_>
      <rect>
        21 24 1 5</rect></_>
    <_>
      <rect>
        21 34 3 6</rect></_>
    <_>
      <rect>
        22 19 2 4</rect></_>
    <_>
      <rect>
        24 8 2 12</rect></_>
    <_>
      <rect>
        24 10 2 7</rect></_>
    <_>
      <rect>
        24 18 2 12</rect></_>
    <_>
      <rect>
        24 19 2 3</rect></_>
    <_>
      <rect>
        24 24 2 9</rect></_>
    <_>
      <rect>
        24 25 2 7</rect></_>
    <_>
      <rect>
        24 25 2 9</rect></_>
    <_>
      <rect>
        24 26 2 5</rect></_>
    <_>
      <rect>
        24 28 2 6</rect></_>
    <_>
      <rect>
        26 14 1 2</rect></_>
    <_>
      <rect>
        26 14 1 10</rect></_>
    <_>
      <rect>
        27 8 1 5</rect></_>
    <_>
      <rect>
        27 19 1 4</rect></_></features></cascade>
</opencv_storage>
